digraph Tree {
node [shape=box, style="filled, rounded", color="black", fontname=helvetica] ;
edge [fontname=helvetica] ;
0 [label="cue_better <= 0.5\ngini = 0.581\nsamples = 857\nvalue = [180, 511, 98, 68]\nclass = WORSE", fillcolor="#47e5397d"] ;
1 [label="cue_faster <= 0.5\ngini = 0.517\nsamples = 734\nvalue = [98, 489, 92, 55]\nclass = WORSE", fillcolor="#47e5399d"] ;
0 -> 1 [labeldistance=2.5, labelangle=45, headlabel="True"] ;
2 [label="cue_slower <= 0.5\ngini = 0.482\nsamples = 696\nvalue = [69, 485, 89, 53]\nclass = WORSE", fillcolor="#47e539a6"] ;
1 -> 2 ;
3 [label="cue_easier <= 0.5\ngini = 0.472\nsamples = 688\nvalue = [69, 485, 88, 46]\nclass = WORSE", fillcolor="#47e539a9"] ;
2 -> 3 ;
4 [label="cue_superior <= 0.5\ngini = 0.46\nsamples = 676\nvalue = [60, 483, 88, 45]\nclass = WORSE", fillcolor="#47e539ab"] ;
3 -> 4 ;
5 [label="cue_inferior <= 0.5\ngini = 0.454\nsamples = 667\nvalue = [54, 480, 88, 45]\nclass = WORSE", fillcolor="#47e539ad"] ;
4 -> 5 ;
6 [label="cue_worse <= 0.5\ngini = 0.448\nsamples = 663\nvalue = [53, 480, 88, 42]\nclass = WORSE", fillcolor="#47e539ae"] ;
5 -> 6 ;
7 [label="cue_harder <= 0.5\ngini = 0.44\nsamples = 656\nvalue = [51, 479, 87, 39]\nclass = WORSE", fillcolor="#47e539b0"] ;
6 -> 7 ;
8 [label="cue_lousy <= 0.5\ngini = 0.433\nsamples = 650\nvalue = [49, 478, 87, 36]\nclass = WORSE", fillcolor="#47e539b1"] ;
7 -> 8 ;
9 [label="cue_nicer <= 0.5\ngini = 0.427\nsamples = 645\nvalue = [46, 477, 87, 35]\nclass = WORSE", fillcolor="#47e539b2"] ;
8 -> 9 ;
10 [label="gini = 0.421\nsamples = 640\nvalue = [43, 476, 87, 34]\nclass = WORSE", fillcolor="#47e539b3"] ;
9 -> 10 ;
11 [label="gini = 0.56\nsamples = 5\nvalue = [3, 1, 0, 1]\nclass = BETTER", fillcolor="#e581397f"] ;
9 -> 11 ;
12 [label="gini = 0.56\nsamples = 5\nvalue = [3, 1, 0, 1]\nclass = BETTER", fillcolor="#e581397f"] ;
8 -> 12 ;
13 [label="gini = 0.611\nsamples = 6\nvalue = [2, 1, 0, 3]\nclass = NONE", fillcolor="#d739e540"] ;
7 -> 13 ;
14 [label="gini = 0.694\nsamples = 7\nvalue = [2, 1, 1, 3]\nclass = NONE", fillcolor="#d739e533"] ;
6 -> 14 ;
15 [label="gini = 0.375\nsamples = 4\nvalue = [1, 0, 0, 3]\nclass = NONE", fillcolor="#d739e5aa"] ;
5 -> 15 ;
16 [label="gini = 0.444\nsamples = 9\nvalue = [6, 3, 0, 0]\nclass = BETTER", fillcolor="#e581397f"] ;
4 -> 16 ;
17 [label="gini = 0.403\nsamples = 12\nvalue = [9, 2, 0, 1]\nclass = BETTER", fillcolor="#e58139b2"] ;
3 -> 17 ;
18 [label="gini = 0.219\nsamples = 8\nvalue = [0, 0, 1, 7]\nclass = NONE", fillcolor="#d739e5db"] ;
2 -> 18 ;
19 [label="cue_slower <= 0.5\ngini = 0.398\nsamples = 38\nvalue = [29, 4, 3, 2]\nclass = BETTER", fillcolor="#e58139bc"] ;
1 -> 19 ;
20 [label="cue_easier <= 0.5\ngini = 0.335\nsamples = 36\nvalue = [29, 4, 2, 1]\nclass = BETTER", fillcolor="#e58139c7"] ;
19 -> 20 ;
21 [label="gini = 0.31\nsamples = 34\nvalue = [28, 3, 2, 1]\nclass = BETTER", fillcolor="#e58139ce"] ;
20 -> 21 ;
22 [label="gini = 0.5\nsamples = 2\nvalue = [1, 1, 0, 0]\nclass = BETTER", fillcolor="#e5813900"] ;
20 -> 22 ;
23 [label="gini = 0.5\nsamples = 2\nvalue = [0, 0, 1, 1]\nclass = OTHER", fillcolor="#399de500"] ;
19 -> 23 ;
24 [label="cue_superior <= 0.5\ngini = 0.51\nsamples = 123\nvalue = [82, 22, 6, 13]\nclass = BETTER", fillcolor="#e5813997"] ;
0 -> 24 [labeldistance=2.5, labelangle=-45, headlabel="False"] ;
25 [label="cue_decent <= 0.5\ngini = 0.513\nsamples = 122\nvalue = [81, 22, 6, 13]\nclass = BETTER", fillcolor="#e5813996"] ;
24 -> 25 ;
26 [label="gini = 0.516\nsamples = 121\nvalue = [80, 22, 6, 13]\nclass = BETTER", fillcolor="#e5813995"] ;
25 -> 26 ;
27 [label="gini = 0.0\nsamples = 1\nvalue = [1, 0, 0, 0]\nclass = BETTER", fillcolor="#e58139ff"] ;
25 -> 27 ;
28 [label="gini = 0.0\nsamples = 1\nvalue = [1, 0, 0, 0]\nclass = BETTER", fillcolor="#e58139ff"] ;
24 -> 28 ;
}